digraph Tree {
node [shape=box] ;
0 [label="X[6] <= 0.168\nmse = 10.536\nsamples = 2923\nvalue = 9.915"] ;
1 [label="X[6] <= 0.068\nmse = 4.569\nsamples = 991\nvalue = 7.509"] ;
0 -> 1 [labeldistance=2.5, labelangle=45, headlabel="True"] ;
2 [label="X[0] <= 0.262\nmse = 2.527\nsamples = 326\nvalue = 5.936"] ;
1 -> 2 ;
3 [label="X[5] <= 0.01\nmse = 1.0\nsamples = 85\nvalue = 4.447"] ;
2 -> 3 ;
4 [label="mse = 0.738\nsamples = 39\nvalue = 3.923"] ;
3 -> 4 ;
5 [label="mse = 0.793\nsamples = 46\nvalue = 4.891"] ;
3 -> 5 ;
6 [label="X[1] <= 0.222\nmse = 2.008\nsamples = 241\nvalue = 6.461"] ;
2 -> 6 ;
7 [label="mse = 1.034\nsamples = 74\nvalue = 5.784"] ;
6 -> 7 ;
8 [label="mse = 2.146\nsamples = 167\nvalue = 6.76"] ;
6 -> 8 ;
9 [label="X[6] <= 0.112\nmse = 3.762\nsamples = 665\nvalue = 8.28"] ;
1 -> 9 ;
10 [label="X[4] <= 0.108\nmse = 2.763\nsamples = 287\nvalue = 7.627"] ;
9 -> 10 ;
11 [label="mse = 3.647\nsamples = 84\nvalue = 8.179"] ;
10 -> 11 ;
12 [label="mse = 2.22\nsamples = 203\nvalue = 7.399"] ;
10 -> 12 ;
13 [label="X[4] <= 0.232\nmse = 3.952\nsamples = 378\nvalue = 8.775"] ;
9 -> 13 ;
14 [label="mse = 4.515\nsamples = 256\nvalue = 9.113"] ;
13 -> 14 ;
15 [label="mse = 2.028\nsamples = 122\nvalue = 8.066"] ;
13 -> 15 ;
16 [label="X[6] <= 0.349\nmse = 9.104\nsamples = 1932\nvalue = 11.149"] ;
0 -> 16 [labeldistance=2.5, labelangle=-45, headlabel="False"] ;
17 [label="X[4] <= 0.304\nmse = 6.549\nsamples = 1311\nvalue = 10.448"] ;
16 -> 17 ;
18 [label="X[3] <= 0.734\nmse = 9.786\nsamples = 362\nvalue = 11.243"] ;
17 -> 18 ;
19 [label="mse = 7.201\nsamples = 290\nvalue = 10.669"] ;
18 -> 19 ;
20 [label="mse = 13.525\nsamples = 72\nvalue = 13.556"] ;
18 -> 20 ;
21 [label="X[6] <= 0.255\nmse = 4.981\nsamples = 949\nvalue = 10.144"] ;
17 -> 21 ;
22 [label="mse = 2.505\nsamples = 359\nvalue = 9.189"] ;
21 -> 22 ;
23 [label="mse = 5.596\nsamples = 590\nvalue = 10.725"] ;
21 -> 23 ;
24 [label="X[6] <= 0.523\nmse = 11.267\nsamples = 621\nvalue = 12.63"] ;
16 -> 24 ;
25 [label="X[4] <= 0.44\nmse = 9.356\nsamples = 529\nvalue = 12.236"] ;
24 -> 25 ;
26 [label="mse = 15.063\nsamples = 76\nvalue = 14.829"] ;
25 -> 26 ;
27 [label="mse = 7.082\nsamples = 453\nvalue = 11.801"] ;
25 -> 27 ;
28 [label="X[4] <= 0.77\nmse = 16.249\nsamples = 92\nvalue = 14.891"] ;
24 -> 28 ;
29 [label="mse = 14.668\nsamples = 54\nvalue = 16.87"] ;
28 -> 29 ;
30 [label="mse = 5.02\nsamples = 38\nvalue = 12.079"] ;
28 -> 30 ;
}